digraph Tree {
node [shape=box, style="filled, rounded", color="black", fontname="helvetica"] ;
edge [fontname="helvetica"] ;
0 [label="feat2 <= 2.5\nentropy = 0.918\nsamples = 9\nvalue = [6, 3]\nclass = noise", fillcolor="#f2c09c"] ;
1 [label="feat1 <= 1.5\nentropy = 1.0\nsamples = 6\nvalue = [3, 3]\nclass = noise", fillcolor="#ffffff"] ;
0 -> 1 [labeldistance=2.5, labelangle=45, headlabel="True"] ;
2 [label="entropy = 0.0\nsamples = 2\nvalue = [2, 0]\nclass = noise", fillcolor="#e58139"] ;
1 -> 2 ;
3 [label="feat2 <= 1.5\nentropy = 0.811\nsamples = 4\nvalue = [1, 3]\nclass = earthquake", fillcolor="#7bbeee"] ;
1 -> 3 ;
4 [label="entropy = 0.0\nsamples = 2\nvalue = [0, 2]\nclass = earthquake", fillcolor="#399de5"] ;
3 -> 4 ;
5 [label="entropy = 1.0\nsamples = 2\nvalue = [1, 1]\nclass = noise", fillcolor="#ffffff"] ;
3 -> 5 ;
6 [label="entropy = 0.0\nsamples = 3\nvalue = [3, 0]\nclass = noise", fillcolor="#e58139"] ;
0 -> 6 [labeldistance=2.5, labelangle=-45, headlabel="False"] ;
}